<?xml version="1.0"?>
<opencv_storage>
<cascade>
  <stageType>BOOST</stageType>
  <featureType>HAAR</featureType>
  <height>24</height>
  <width>36</width>
  <stageParams>
    <boostType>GAB</boostType>
    <minHitRate>9.9500000476837158e-01</minHitRate>
    <maxFalseAlarm>4.7999998927116394e-01</maxFalseAlarm>
    <weightTrimRate>9.4999999999999996e-01</weightTrimRate>
    <maxDepth>1</maxDepth>
    <maxWeakCount>100</maxWeakCount></stageParams>
  <featureParams>
    <maxCatCount>0</maxCatCount>
    <featSize>1</featSize>
    <mode>BASIC</mode></featureParams>
  <stageNum>15</stageNum>
  <stages>
    <!-- stage 0 -->
    <_>
      <maxWeakCount>3</maxWeakCount>
      <stageThreshold>-9.0599256753921509e-01</stageThreshold>
      <weakClassifiers>
        <_>
          <internalNodes>
            0 -1 11 -3.5376947373151779e-02</internalNodes>
          <leafValues>
            9.0196079015731812e-01 -9.3877553939819336e-01</leafValues></_>
        <_>
          <internalNodes>
            0 -1 22 -5.3908959962427616e-03</internalNodes>
          <leafValues>
            8.3472979068756104e-01 -7.0491927862167358e-01</leafValues></_>
        <_>
          <internalNodes>
            0 -1 38 -3.1271525658667088e-03</internalNodes>
          <leafValues>
            7.3770219087600708e-01 -8.0980950593948364e-01</leafValues></_></weakClassifiers></_>
    <!-- stage 1 -->
    <_>
      <maxWeakCount>2</maxWeakCount>
      <stageThreshold>-2.9190285131335258e-02</stageThreshold>
      <weakClassifiers>
        <_>
          <internalNodes>
            0 -1 45 -2.4488475173711777e-02</internalNodes>
          <leafValues>
            8.9361703395843506e-01 -7.9245281219482422e-01</leafValues></_>
        <_>
          <internalNodes>
            0 -1 4 -1.1785639449954033e-02</internalNodes>
          <leafValues>
            7.6326256990432739e-01 -9.1716897487640381e-01</leafValues></_></weakClassifiers></_>
    <!-- stage 2 -->
    <_>
      <maxWeakCount>3</maxWeakCount>
      <stageThreshold>-1.0876454114913940e+00</stageThreshold>
      <weakClassifiers>
        <_>
          <internalNodes>
            0 -1 7 -1.6004776582121849e-02</internalNodes>
          <leafValues>
            6.4705884456634521e-01 -9.5061731338500977e-01</leafValues></_>
        <_>
          <internalNodes>
            0 -1 16 -2.0797565579414368e-01</internalNodes>
          <leafValues>
            8.2147866487503052e-01 -7.5089246034622192e-01</leafValues></_>
        <_>
          <internalNodes>
            0 -1 6 8.9975669980049133e-03</internalNodes>
          <leafValues>
            -8.3416545391082764e-01 6.1386430263519287e-01</leafValues></_></weakClassifiers></_>
    <!-- stage 3 -->
    <_>
      <maxWeakCount>2</maxWeakCount>
      <stageThreshold>-2.1693652868270874e-01</stageThreshold>
      <weakClassifiers>
        <_>
          <internalNodes>
            0 -1 28 -1.6851222142577171e-02</internalNodes>
          <leafValues>
            7.6344084739685059e-01 -6.6355139017105103e-01</leafValues></_>
        <_>
          <internalNodes>
            0 -1 2 -6.4934225520119071e-04</internalNodes>
          <leafValues>
            5.2888137102127075e-01 -9.8037737607955933e-01</leafValues></_></weakClassifiers></_>
    <!-- stage 4 -->
    <_>
      <maxWeakCount>3</maxWeakCount>
      <stageThreshold>-7.5958639383316040e-01</stageThreshold>
      <weakClassifiers>
        <_>
          <internalNodes>
            0 -1 32 -8.7137389928102493e-03</internalNodes>
          <leafValues>
            6.3636362552642822e-01 -7.7777779102325439e-01</leafValues></_>
        <_>
          <internalNodes>
            0 -1 9 6.4824987202882767e-03</internalNodes>
          <leafValues>
            -7.6461946964263916e-01 7.0291972160339355e-01</leafValues></_>
        <_>
          <internalNodes>
            0 -1 29 2.9466569423675537e-02</internalNodes>
          <leafValues>
            -6.8472838401794434e-01 8.4659528732299805e-01</leafValues></_></weakClassifiers></_>
    <!-- stage 5 -->
    <_>
      <maxWeakCount>3</maxWeakCount>
      <stageThreshold>-1.1324446201324463e+00</stageThreshold>
      <weakClassifiers>
        <_>
          <internalNodes>
            0 -1 31 -1.8198190955445170e-03</internalNodes>
          <leafValues>
            6.0344827175140381e-01 -8.3333331346511841e-01</leafValues></_>
        <_>
          <internalNodes>
            0 -1 44 1.7597345504327677e-05</internalNodes>
          <leafValues>
            -7.9477745294570923e-01 5.5751574039459229e-01</leafValues></_>
        <_>
          <internalNodes>
            0 -1 35 -2.1247137337923050e-02</internalNodes>
          <leafValues>
            4.9566614627838135e-01 -9.5407462120056152e-01</leafValues></_></weakClassifiers></_>
    <!-- stage 6 -->
    <_>
      <maxWeakCount>3</maxWeakCount>
      <stageThreshold>-7.6172548532485962e-01</stageThreshold>
      <weakClassifiers>
        <_>
          <internalNodes>
            0 -1 43 1.1133644729852676e-02</internalNodes>
          <leafValues>
            -7.2815531492233276e-01 7.7319586277008057e-01</leafValues></_>
        <_>
          <internalNodes>
            0 -1 25 -5.5821659043431282e-03</internalNodes>
          <leafValues>
            7.3701137304306030e-01 -6.7463403940200806e-01</leafValues></_>
        <_>
          <internalNodes>
            0 -1 27 6.0001965612173080e-03</internalNodes>
          <leafValues>
            -7.7058148384094238e-01 7.0954769849777222e-01</leafValues></_></weakClassifiers></_>
    <!-- stage 7 -->
    <_>
      <maxWeakCount>3</maxWeakCount>
      <stageThreshold>-8.6238729953765869e-01</stageThreshold>
      <weakClassifiers>
        <_>
          <internalNodes>
            0 -1 41 -1.6188975423574448e-02</internalNodes>
          <leafValues>
            7.6595747470855713e-01 -6.7924529314041138e-01</leafValues></_>
        <_>
          <internalNodes>
            0 -1 13 -6.5084673464298248e-02</internalNodes>
          <leafValues>
            7.0407801866531372e-01 -6.8654394149780273e-01</leafValues></_>
        <_>
          <internalNodes>
            0 -1 3 1.2221458018757403e-04</internalNodes>
          <leafValues>
            5.0340193510055542e-01 -1.</leafValues></_></weakClassifiers></_>
    <!-- stage 8 -->
    <_>
      <maxWeakCount>5</maxWeakCount>
      <stageThreshold>-6.4697569608688354e-01</stageThreshold>
      <weakClassifiers>
        <_>
          <internalNodes>
            0 -1 24 -1.3045135885477066e-02</internalNodes>
          <leafValues>
            6.1818182468414307e-01 -7.5555557012557983e-01</leafValues></_>
        <_>
          <internalNodes>
            0 -1 42 -9.0399188920855522e-03</internalNodes>
          <leafValues>
            7.6039862632751465e-01 -6.8194615840911865e-01</leafValues></_>
        <_>
          <internalNodes>
            0 -1 34 -1.2818258255720139e-05</internalNodes>
          <leafValues>
            4.9507865309715271e-01 -8.6383461952209473e-01</leafValues></_>
        <_>
          <internalNodes>
            0 -1 23 -3.5133261699229479e-03</internalNodes>
          <leafValues>
            6.7175108194351196e-01 -5.6721824407577515e-01</leafValues></_>
        <_>
          <internalNodes>
            0 -1 36 -1.2990780174732208e-02</internalNodes>
          <leafValues>
            8.6266559362411499e-01 -4.8315480351448059e-01</leafValues></_></weakClassifiers></_>
    <!-- stage 9 -->
    <_>
      <maxWeakCount>4</maxWeakCount>
      <stageThreshold>3.8895890116691589e-02</stageThreshold>
      <weakClassifiers>
        <_>
          <internalNodes>
            0 -1 46 -2.2940123453736305e-03</internalNodes>
          <leafValues>
            7.3626375198364258e-01 -6.1467891931533813e-01</leafValues></_>
        <_>
          <internalNodes>
            0 -1 14 -4.2003197449957952e-05</internalNodes>
          <leafValues>
            -9.3911689519882202e-01 4.7334122657775879e-01</leafValues></_>
        <_>
          <internalNodes>
            0 -1 12 -2.0740619301795959e-01</internalNodes>
          <leafValues>
            8.8509178161621094e-01 -5.8390128612518311e-01</leafValues></_>
        <_>
          <internalNodes>
            0 -1 18 -5.9865057468414307e-02</internalNodes>
          <leafValues>
            9.2288309335708618e-01 -5.8680778741836548e-01</leafValues></_></weakClassifiers></_>
    <!-- stage 10 -->
    <_>
      <maxWeakCount>3</maxWeakCount>
      <stageThreshold>-9.8278278112411499e-01</stageThreshold>
      <weakClassifiers>
        <_>
          <internalNodes>
            0 -1 15 -1.0696152457967401e-03</internalNodes>
          <leafValues>
            5.3719007968902588e-01 -8.2278478145599365e-01</leafValues></_>
        <_>
          <internalNodes>
            0 -1 20 -7.1518700569868088e-03</internalNodes>
          <leafValues>
            4.3787667155265808e-01 -8.9587360620498657e-01</leafValues></_>
        <_>
          <internalNodes>
            0 -1 33 -4.5998403802514076e-03</internalNodes>
          <leafValues>
            7.9709368944168091e-01 -6.2409925460815430e-01</leafValues></_></weakClassifiers></_>
    <!-- stage 11 -->
    <_>
      <maxWeakCount>4</maxWeakCount>
      <stageThreshold>-5.3729861974716187e-01</stageThreshold>
      <weakClassifiers>
        <_>
          <internalNodes>
            0 -1 37 -3.7776380777359009e-03</internalNodes>
          <leafValues>
            9.1428571939468384e-01 -4.9230769276618958e-01</leafValues></_>
        <_>
          <internalNodes>
            0 -1 19 -6.4458828419446945e-03</internalNodes>
          <leafValues>
            5.4972118139266968e-01 -8.7907451391220093e-01</leafValues></_>
        <_>
          <internalNodes>
            0 -1 17 1.1694755405187607e-02</internalNodes>
          <leafValues>
            4.2817974090576172e-01 -1.</leafValues></_>
        <_>
          <internalNodes>
            0 -1 10 -2.3208124912343919e-04</internalNodes>
          <leafValues>
            -9.5812112092971802e-01 4.0590381622314453e-01</leafValues></_></weakClassifiers></_>
    <!-- stage 12 -->
    <_>
      <maxWeakCount>2</maxWeakCount>
      <stageThreshold>-2.1347787976264954e-01</stageThreshold>
      <weakClassifiers>
        <_>
          <internalNodes>
            0 -1 0 -2.5402102619409561e-02</internalNodes>
          <leafValues>
            6.4814811944961548e-01 -7.6086956262588501e-01</leafValues></_>
        <_>
          <internalNodes>
            0 -1 5 7.8255143016576767e-03</internalNodes>
          <leafValues>
            5.7310712337493896e-01 -8.6162602901458740e-01</leafValues></_></weakClassifiers></_>
    <!-- stage 13 -->
    <_>
      <maxWeakCount>3</maxWeakCount>
      <stageThreshold>-9.5818668603897095e-01</stageThreshold>
      <weakClassifiers>
        <_>
          <internalNodes>
            0 -1 21 -3.1179038807749748e-02</internalNodes>
          <leafValues>
            6.5306121110916138e-01 -6.2745100259780884e-01</leafValues></_>
        <_>
          <internalNodes>
            0 -1 1 -1.6023404896259308e-03</internalNodes>
          <leafValues>
            -8.9957123994827271e-01 4.6041652560234070e-01</leafValues></_>
        <_>
          <internalNodes>
            0 -1 30 -6.5028923563659191e-04</internalNodes>
          <leafValues>
            5.5085211992263794e-01 -7.9115223884582520e-01</leafValues></_></weakClassifiers></_>
    <!-- stage 14 -->
    <_>
      <maxWeakCount>4</maxWeakCount>
      <stageThreshold>-1.2429815530776978e+00</stageThreshold>
      <weakClassifiers>
        <_>
          <internalNodes>
            0 -1 26 1.4417523925658315e-04</internalNodes>
          <leafValues>
            -6.4356434345245361e-01 6.5656566619873047e-01</leafValues></_>
        <_>
          <internalNodes>
            0 -1 39 3.9423019625246525e-03</internalNodes>
          <leafValues>
            -5.7208645343780518e-01 7.4788308143615723e-01</leafValues></_>
        <_>
          <internalNodes>
            0 -1 8 1.2278664507903159e-04</internalNodes>
          <leafValues>
            -8.1593662500381470e-01 5.7076811790466309e-01</leafValues></_>
        <_>
          <internalNodes>
            0 -1 40 4.6585401287302375e-04</internalNodes>
          <leafValues>
            -5.9809887409210205e-01 7.4615877866744995e-01</leafValues></_></weakClassifiers></_></stages>
  <features>
    <_>
      <rects>
        <_>
          0 0 23 8 -1.</_>
        <_>
          0 4 23 4 2.</_></rects>
      <tilted>0</tilted></_>
    <_>
      <rects>
        <_>
          0 1 5 9 -1.</_>
        <_>
          0 4 5 3 3.</_></rects>
      <tilted>0</tilted></_>
    <_>
      <rects>
        <_>
          0 1 10 8 -1.</_>
        <_>
          0 5 10 4 2.</_></rects>
      <tilted>0</tilted></_>
    <_>
      <rects>
        <_>
          0 2 1 6 -1.</_>
        <_>
          0 5 1 3 2.</_></rects>
      <tilted>0</tilted></_>
    <_>
      <rects>
        <_>
          0 4 1 18 -1.</_>
        <_>
          0 13 1 9 2.</_></rects>
      <tilted>0</tilted></_>
    <_>
      <rects>
        <_>
          0 6 10 14 -1.</_>
        <_>
          5 6 5 14 2.</_></rects>
      <tilted>0</tilted></_>
    <_>
      <rects>
        <_>
          0 10 28 9 -1.</_>
        <_>
          0 13 28 3 3.</_></rects>
      <tilted>0</tilted></_>
    <_>
      <rects>
        <_>
          0 18 18 6 -1.</_>
        <_>
          0 21 18 3 2.</_></rects>
      <tilted>0</tilted></_>
    <_>
      <rects>
        <_>
          1 0 5 6 -1.</_>
        <_>
          1 2 5 2 3.</_></rects>
      <tilted>0</tilted></_>
    <_>
      <rects>
        <_>
          1 1 1 18 -1.</_>
        <_>
          1 7 1 6 3.</_></rects>
      <tilted>0</tilted></_>
    <_>
      <rects>
        <_>
          1 2 9 1 -1.</_>
        <_>
          4 2 3 1 3.</_></rects>
      <tilted>0</tilted></_>
    <_>
      <rects>
        <_>
          1 2 20 12 -1.</_>
        <_>
          11 2 10 12 2.</_></rects>
      <tilted>0</tilted></_>
    <_>
      <rects>
        <_>
          1 5 33 9 -1.</_>
        <_>
          12 5 11 9 3.</_></rects>
      <tilted>0</tilted></_>
    <_>
      <rects>
        <_>
          1 12 11 12 -1.</_>
        <_>
          1 18 11 6 2.</_></rects>
      <tilted>0</tilted></_>
    <_>
      <rects>
        <_>
          2 0 7 2 -1.</_>
        <_>
          2 1 7 1 2.</_></rects>
      <tilted>0</tilted></_>
    <_>
      <rects>
        <_>
          2 0 25 2 -1.</_>
        <_>
          2 1 25 1 2.</_></rects>
      <tilted>0</tilted></_>
    <_>
      <rects>
        <_>
          2 2 33 13 -1.</_>
        <_>
          13 2 11 13 3.</_></rects>
      <tilted>0</tilted></_>
    <_>
      <rects>
        <_>
          3 0 4 15 -1.</_>
        <_>
          3 5 4 5 3.</_></rects>
      <tilted>0</tilted></_>
    <_>
      <rects>
        <_>
          3 7 5 14 -1.</_>
        <_>
          3 14 5 7 2.</_></rects>
      <tilted>0</tilted></_>
    <_>
      <rects>
        <_>
          3 20 13 4 -1.</_>
        <_>
          3 22 13 2 2.</_></rects>
      <tilted>0</tilted></_>
    <_>
      <rects>
        <_>
          4 20 14 4 -1.</_>
        <_>
          4 22 14 2 2.</_></rects>
      <tilted>0</tilted></_>
    <_>
      <rects>
        <_>
          7 0 8 16 -1.</_>
        <_>
          11 0 4 16 2.</_></rects>
      <tilted>0</tilted></_>
    <_>
      <rects>
        <_>
          9 11 10 3 -1.</_>
        <_>
          14 11 5 3 2.</_></rects>
      <tilted>0</tilted></_>
    <_>
      <rects>
        <_>
          10 1 19 2 -1.</_>
        <_>
          10 2 19 1 2.</_></rects>
      <tilted>0</tilted></_>
    <_>
      <rects>
        <_>
          10 12 12 5 -1.</_>
        <_>
          16 12 6 5 2.</_></rects>
      <tilted>0</tilted></_>
    <_>
      <rects>
        <_>
          11 1 4 12 -1.</_>
        <_>
          13 1 2 12 2.</_></rects>
      <tilted>0</tilted></_>
    <_>
      <rects>
        <_>
          11 10 2 8 -1.</_>
        <_>
          11 14 2 4 2.</_></rects>
      <tilted>0</tilted></_>
    <_>
      <rects>
        <_>
          11 20 18 4 -1.</_>
        <_>
          11 20 9 2 2.</_>
        <_>
          20 22 9 2 2.</_></rects>
      <tilted>0</tilted></_>
    <_>
      <rects>
        <_>
          12 0 6 16 -1.</_>
        <_>
          15 0 3 16 2.</_></rects>
      <tilted>0</tilted></_>
    <_>
      <rects>
        <_>
          14 6 22 2 -1.</_>
        <_>
          25 6 11 2 2.</_></rects>
      <tilted>0</tilted></_>
    <_>
      <rects>
        <_>
          15 9 4 3 -1.</_>
        <_>
          17 9 2 3 2.</_></rects>
      <tilted>0</tilted></_>
    <_>
      <rects>
        <_>
          15 19 10 2 -1.</_>
        <_>
          20 19 5 2 2.</_></rects>
      <tilted>0</tilted></_>
    <_>
      <rects>
        <_>
          16 21 20 2 -1.</_>
        <_>
          26 21 10 2 2.</_></rects>
      <tilted>0</tilted></_>
    <_>
      <rects>
        <_>
          17 6 6 7 -1.</_>
        <_>
          20 6 3 7 2.</_></rects>
      <tilted>0</tilted></_>
    <_>
      <rects>
        <_>
          18 16 2 1 -1.</_>
        <_>
          19 16 1 1 2.</_></rects>
      <tilted>0</tilted></_>
    <_>
      <rects>
        <_>
          19 3 17 10 -1.</_>
        <_>
          19 8 17 5 2.</_></rects>
      <tilted>0</tilted></_>
    <_>
      <rects>
        <_>
          20 8 6 16 -1.</_>
        <_>
          23 8 3 16 2.</_></rects>
      <tilted>0</tilted></_>
    <_>
      <rects>
        <_>
          24 18 11 3 -1.</_>
        <_>
          24 19 11 1 3.</_></rects>
      <tilted>0</tilted></_>
    <_>
      <rects>
        <_>
          26 18 10 6 -1.</_>
        <_>
          26 18 5 3 2.</_>
        <_>
          31 21 5 3 2.</_></rects>
      <tilted>0</tilted></_>
    <_>
      <rects>
        <_>
          27 3 9 3 -1.</_>
        <_>
          30 3 3 3 3.</_></rects>
      <tilted>0</tilted></_>
    <_>
      <rects>
        <_>
          29 20 1 4 -1.</_>
        <_>
          29 22 1 2 2.</_></rects>
      <tilted>0</tilted></_>
    <_>
      <rects>
        <_>
          31 14 3 8 -1.</_>
        <_>
          31 18 3 4 2.</_></rects>
      <tilted>0</tilted></_>
    <_>
      <rects>
        <_>
          32 13 1 10 -1.</_>
        <_>
          32 18 1 5 2.</_></rects>
      <tilted>0</tilted></_>
    <_>
      <rects>
        <_>
          33 2 1 21 -1.</_>
        <_>
          33 9 1 7 3.</_></rects>
      <tilted>0</tilted></_>
    <_>
      <rects>
        <_>
          34 2 2 8 -1.</_>
        <_>
          34 6 2 4 2.</_></rects>
      <tilted>0</tilted></_>
    <_>
      <rects>
        <_>
          34 10 2 14 -1.</_>
        <_>
          34 17 2 7 2.</_></rects>
      <tilted>0</tilted></_>
    <_>
      <rects>
        <_>
          35 17 1 4 -1.</_>
        <_>
          35 19 1 2 2.</_></rects>
      <tilted>0</tilted></_></features></cascade>
</opencv_storage>
